{
 "sizes": [
  24,
  12,
  7
 ],
 "layers": [
  {
   "0": {},
   "1": {},
   "2": {},
   "3": {},
   "4": {},
   "5": {},
   "6": {},
   "7": {},
   "8": {},
   "9": {},
   "10": {},
   "11": {},
   "12": {},
   "13": {},
   "14": {},
   "15": {},
   "16": {},
   "17": {},
   "18": {},
   "19": {},
   "20": {},
   "21": {},
   "22": {},
   "23": {}
  },
  {
   "0": {
    "bias": -1.1888450384140015,
    "weights": {
     "0": 87.6845703125,
     "1": -37.65415954589844,
     "2": -56.184349060058594,
     "3": 224.13038635253906,
     "4": 63.39752960205078,
     "5": 66.37950897216797,
     "6": -13.011341094970703,
     "7": 32.54814147949219,
     "8": 74.98908996582031,
     "9": 76.7806396484375,
     "10": -49.968570709228516,
     "11": 56.29378128051758,
     "12": -20.603633880615234,
     "13": -0.07861264050006866,
     "14": 24.78432273864746,
     "15": -0.19069579243659973,
     "16": 9.46996784210205,
     "17": 0.04402343928813934,
     "18": 27.468833923339844,
     "19": 0.10124204307794571,
     "20": -42.22167205810547,
     "21": 23.724773406982422,
     "22": 11.48837661743164,
     "23": -2.556136131286621
    }
   },
   "1": {
    "bias": -0.28017091751098633,
    "weights": {
     "0": 0.06626102328300476,
     "1": -0.20711898803710938,
     "2": 0.05206123739480972,
     "3": -0.08512285351753235,
     "4": 0.03770770877599716,
     "5": -0.3188450038433075,
     "6": 0.05005187913775444,
     "7": -0.15186525881290436,
     "8": 0.036586884409189224,
     "9": -0.05505722388625145,
     "10": 0.09172827005386353,
     "11": 0.13247337937355042,
     "12": 0.1268659383058548,
     "13": -0.1483677327632904,
     "14": 0.10591406375169754,
     "15": 0.1288960576057434,
     "16": 0.13506722450256348,
     "17": 0.15312451124191284,
     "18": -0.07940530776977539,
     "19": -0.05778643488883972,
     "20": 0.1363752782344818,
     "21": -0.15278521180152893,
     "22": 0.000909431604668498,
     "23": -0.09689509123563766
    }
   },
   "2": {
    "bias": -17.592464447021484,
    "weights": {
     "0": -30.43531608581543,
     "1": 179.95347595214844,
     "2": 6.134690761566162,
     "3": -26.71413803100586,
     "4": 39.37895202636719,
     "5": 12.558053970336914,
     "6": 2.128840923309326,
     "7": -57.499916076660156,
     "8": 42.97516632080078,
     "9": 9.732662200927734,
     "10": -14.733169555664062,
     "11": -29.795860290527344,
     "12": -36.90987777709961,
     "13": 0.18777866661548615,
     "14": 166.4029998779297,
     "15": -0.01617291010916233,
     "16": -92.67911529541016,
     "17": 0.15630604326725006,
     "18": -50.680049896240234,
     "19": -0.02034599892795086,
     "20": -5.296221733093262,
     "21": 44.8868522644043,
     "22": 10.144246101379395,
     "23": 1.8943976163864136
    }
   },
   "3": {
    "bias": 100.18853759765625,
    "weights": {
     "0": 1.9228906631469727,
     "1": 12.952491760253906,
     "2": 80.67387390136719,
     "3": -1.4457839727401733,
     "4": -2.1160788536071777,
     "5": 147.1599884033203,
     "6": 38.586524963378906,
     "7": -51.10895919799805,
     "8": -101.45848846435547,
     "9": 75.24893188476562,
     "10": -1.0829957723617554,
     "11": -1.5040582418441772,
     "12": 2.2162892818450928,
     "13": 0.041778236627578735,
     "14": 13.217217445373535,
     "15": 0.09741798788309097,
     "16": 2.921384334564209,
     "17": 0.07028640061616898,
     "18": 22.289356231689453,
     "19": 0.19013486802577972,
     "20": 70.24421691894531,
     "21": -107.83341979980469,
     "22": 8.051078796386719,
     "23": -54.60746765136719
    }
   },
   "4": {
    "bias": 1.0661133527755737,
    "weights": {
     "0": -0.36674419045448303,
     "1": 22.85331153869629,
     "2": 15.881505966186523,
     "3": -0.1519908905029297,
     "4": 9.230387687683105,
     "5": 20.548864364624023,
     "6": -0.6889001727104187,
     "7": 0.287693053483963,
     "8": 3.167837619781494,
     "9": 2.580103874206543,
     "10": -11.536429405212402,
     "11": 8.878944396972656,
     "12": -5.501250743865967,
     "13": -0.11828464269638062,
     "14": 21.723127365112305,
     "15": 0.011846664361655712,
     "16": -11.127903938293457,
     "17": 0.10604636371135712,
     "18": -3.5382533073425293,
     "19": -0.041133273392915726,
     "20": -0.9546679258346558,
     "21": -6.217476844787598,
     "22": 3.916598081588745,
     "23": -6.001220226287842
    }
   },
   "5": {
    "bias": 9.26563835144043,
    "weights": {
     "0": 27.3842716217041,
     "1": 6.137807369232178,
     "2": 31.913326263427734,
     "3": 9.271328926086426,
     "4": 100.1717758178711,
     "5": -140.7022247314453,
     "6": -51.72257995605469,
     "7": 7.356302261352539,
     "8": -7.471766471862793,
     "9": 135.4020538330078,
     "10": -42.842689514160156,
     "11": -14.973846435546875,
     "12": -145.3426055908203,
     "13": -0.19009515643119812,
     "14": 3.1304612159729004,
     "15": -0.16672202944755554,
     "16": -9.347723007202148,
     "17": 0.002414148300886154,
     "18": 206.2937469482422,
     "19": -0.18801447749137878,
     "20": -44.09566879272461,
     "21": -6.888893127441406,
     "22": -3.2447993755340576,
     "23": 2.2472896575927734
    }
   },
   "6": {
    "bias": 3.101511001586914,
    "weights": {
     "0": -2.1502397060394287,
     "1": 63.91020584106445,
     "2": 119.45254516601562,
     "3": -52.35053634643555,
     "4": 11.700532913208008,
     "5": 23.30023765563965,
     "6": -13.793336868286133,
     "7": 40.64799880981445,
     "8": 74.59663391113281,
     "9": -114.38362884521484,
     "10": -72.14276885986328,
     "11": 192.42417907714844,
     "12": 57.98129653930664,
     "13": 0.07319652289152145,
     "14": 51.825721740722656,
     "15": -0.10661660134792328,
     "16": -45.0616455078125,
     "17": 0.02742438204586506,
     "18": -55.528541564941406,
     "19": 0.027705462649464607,
     "20": -5.529255390167236,
     "21": 66.80843353271484,
     "22": 21.712425231933594,
     "23": 39.5518913269043
    }
   },
   "7": {
    "bias": -0.2851274311542511,
    "weights": {
     "0": -0.11064676195383072,
     "1": 0.005150679033249617,
     "2": -0.18459318578243256,
     "3": -0.016651200130581856,
     "4": 0.06622466444969177,
     "5": -0.03673141077160835,
     "6": -0.253861665725708,
     "7": 0.023375220596790314,
     "8": 0.14980533719062805,
     "9": -0.007760947570204735,
     "10": 0.11113704741001129,
     "11": -0.0784180760383606,
     "12": 0.0966840460896492,
     "13": -0.16027313470840454,
     "14": -0.05694051831960678,
     "15": -0.15635254979133606,
     "16": -0.07114752382040024,
     "17": -0.09921669214963913,
     "18": 0.08781090378761292,
     "19": 0.09430578351020813,
     "20": -0.05969597399234772,
     "21": -0.04294353723526001,
     "22": -0.01875177212059498,
     "23": 0.07041232287883759
    }
   },
   "8": {
    "bias": -19.3236083984375,
    "weights": {
     "0": -32.29323959350586,
     "1": 41.14548110961914,
     "2": 3.253739356994629,
     "3": -53.06189727783203,
     "4": 60.677490234375,
     "5": 48.59730529785156,
     "6": -35.09555435180664,
     "7": 113.26488494873047,
     "8": 146.5375518798828,
     "9": 88.19795989990234,
     "10": 44.771812438964844,
     "11": -100.50406646728516,
     "12": -70.44254302978516,
     "13": -0.09627286344766617,
     "14": 37.769229888916016,
     "15": 0.006106972228735685,
     "16": 71.27310180664062,
     "17": 0.15346935391426086,
     "18": 20.415666580200195,
     "19": -0.06843684613704681,
     "20": -79.85321807861328,
     "21": 4.981354236602783,
     "22": -16.473583221435547,
     "23": -21.283615112304688
    }
   },
   "9": {
    "bias": 2.4015214443206787,
    "weights": {
     "0": 69.42730712890625,
     "1": -6.039452075958252,
     "2": -60.85203552246094,
     "3": 147.28622436523438,
     "4": 27.336320877075195,
     "5": 8.266486167907715,
     "6": -0.2467973679304123,
     "7": -7.110921859741211,
     "8": 14.907864570617676,
     "9": 45.61155700683594,
     "10": -32.12894058227539,
     "11": 19.821979522705078,
     "12": -1.6585907936096191,
     "13": 0.18404562771320343,
     "14": 25.575450897216797,
     "15": -0.19313707947731018,
     "16": -10.541067123413086,
     "17": 0.1236080601811409,
     "18": -1.0970245599746704,
     "19": -0.11128133535385132,
     "20": -9.754132270812988,
     "21": 5.663957595825195,
     "22": 6.42855167388916,
     "23": 3.131805181503296
    }
   },
   "10": {
    "bias": -1.5263299942016602,
    "weights": {
     "0": 32.71756362915039,
     "1": 4.960532188415527,
     "2": 1.8135566711425781,
     "3": 64.38622283935547,
     "4": 18.572223663330078,
     "5": 31.13068962097168,
     "6": -12.167513847351074,
     "7": 18.10529327392578,
     "8": 9.36194896697998,
     "9": 11.566912651062012,
     "10": -38.20332717895508,
     "11": 54.80903244018555,
     "12": -3.7944588661193848,
     "13": -0.06741517037153244,
     "14": 17.182004928588867,
     "15": 0.1803225427865982,
     "16": -17.413225173950195,
     "17": -0.18851298093795776,
     "18": 3.8547565937042236,
     "19": 0.09618812799453735,
     "20": -1.3095978498458862,
     "21": -1.684363842010498,
     "22": 12.964940071105957,
     "23": -3.468139171600342
    }
   },
   "11": {
    "bias": -0.3556928038597107,
    "weights": {
     "0": -0.12133835256099701,
     "1": 0.01524453703314066,
     "2": -0.021454205736517906,
     "3": -0.024503855034708977,
     "4": -0.12362132221460342,
     "5": 0.16386465728282928,
     "6": -0.18918351829051971,
     "7": -0.20348003506660461,
     "8": 0.04465315490961075,
     "9": -0.05205562338232994,
     "10": -0.11141311377286911,
     "11": 0.21919576823711395,
     "12": -0.04211023077368736,
     "13": 0.164256751537323,
     "14": 0.10661641508340836,
     "15": 0.1375741809606552,
     "16": 0.06952796876430511,
     "17": -0.04965360835194588,
     "18": 0.08030823618173599,
     "19": 0.17268139123916626,
     "20": -0.0023560707923024893,
     "21": -0.19957858324050903,
     "22": 0.12030763924121857,
     "23": 0.12632660567760468
    }
   }
  },
  {
   "0": {
    "bias": 0.3675471842288971,
    "weights": {
     "0": 16.77145767211914,
     "1": -0.1248873695731163,
     "2": -2.251089096069336,
     "3": -2.1304569244384766,
     "4": 0.13219578564167023,
     "5": -5.879058837890625,
     "6": -6.653980731964111,
     "7": -0.05823734775185585,
     "8": -4.651158809661865,
     "9": 10.5629301071167,
     "10": 3.869288921356201,
     "11": -0.1263243407011032
    }
   },
   "1": {
    "bias": -1.3425966501235962,
    "weights": {
     "0": -11.022357940673828,
     "1": -0.1524539440870285,
     "2": 23.395221710205078,
     "3": -0.968655526638031,
     "4": 2.6334385871887207,
     "5": -2.224421739578247,
     "6": 1.0069390535354614,
     "7": -0.15113584697246552,
     "8": 3.8383872509002686,
     "9": -4.376743793487549,
     "10": -1.230171799659729,
     "11": 0.01849275827407837
    }
   },
   "2": {
    "bias": 19.4758358001709,
    "weights": {
     "0": -5.284092426300049,
     "1": 0.09171339124441147,
     "2": -8.56999683380127,
     "3": -16.35158348083496,
     "4": -3.3443233966827393,
     "5": 1.3342260122299194,
     "6": -0.84172123670578,
     "7": 0.043607208877801895,
     "8": 13.23240852355957,
     "9": -8.534867286682129,
     "10": -8.819952011108398,
     "11": -0.14549829065799713
    }
   },
   "3": {
    "bias": 9.830587387084961,
    "weights": {
     "0": -12.909186363220215,
     "1": -0.1425275355577469,
     "2": -9.88157844543457,
     "3": -5.9931464195251465,
     "4": -1.1206117868423462,
     "5": -18.315977096557617,
     "6": 22.203365325927734,
     "7": -0.06780648231506348,
     "8": -12.421836853027344,
     "9": -5.422797203063965,
     "10": -1.791467547416687,
     "11": 0.07286765426397324
    }
   },
   "4": {
    "bias": 0.6859421133995056,
    "weights": {
     "0": -2.68377423286438,
     "1": -0.05585470423102379,
     "2": -8.406159400939941,
     "3": 4.7855024337768555,
     "4": -0.22833600640296936,
     "5": -9.101967811584473,
     "6": -8.941154479980469,
     "7": 0.08025433868169785,
     "8": 18.815523147583008,
     "9": -9.742696762084961,
     "10": -2.8207108974456787,
     "11": -0.06713411211967468
    }
   },
   "5": {
    "bias": 7.644595146179199,
    "weights": {
     "0": -9.65251350402832,
     "1": 0.1520327478647232,
     "2": -7.013947010040283,
     "3": 0.32789015769958496,
     "4": -1.2385985851287842,
     "5": 23.078453063964844,
     "6": -21.515031814575195,
     "7": -0.09224804490804672,
     "8": 0.3083423972129822,
     "9": -2.9444990158081055,
     "10": -1.4233933687210083,
     "11": -0.09693250805139542
    }
   },
   "6": {
    "bias": 39.21703338623047,
    "weights": {
     "0": -14.993880271911621,
     "1": -0.1681669056415558,
     "2": -0.2750904858112335,
     "3": 20.297574996948242,
     "4": -0.0005938116228207946,
     "5": -16.53626251220703,
     "6": -2.663283348083496,
     "7": -0.19845116138458252,
     "8": -15.135089874267578,
     "9": -1.9657007455825806,
     "10": -2.8947343826293945,
     "11": -0.0900593176484108
    }
   }
  }
 ],
 "outputLookup": true,
 "inputLookup": true,
 "activation": "leaky-relu",
 "trainOpts": {
  "iterations": 20000,
  "errorThresh": 0.005,
  "log": false,
  "logPeriod": 10,
  "learningRate": 0.3,
  "momentum": 0.1,
  "callbackPeriod": 10,
  "beta1": 0.9,
  "beta2": 0.999,
  "epsilon": 1e-8
 }
}