{
 "sizes": [
  24,
  3,
  7
 ],
 "layers": [
  {
   "0": {},
   "1": {},
   "2": {},
   "3": {},
   "4": {},
   "5": {},
   "6": {},
   "7": {},
   "8": {},
   "9": {},
   "10": {},
   "11": {},
   "12": {},
   "13": {},
   "14": {},
   "15": {},
   "16": {},
   "17": {},
   "18": {},
   "19": {},
   "20": {},
   "21": {},
   "22": {},
   "23": {}
  },
  {
   "0": {
    "bias": -1.1240326166152954,
    "weights": {
     "0": 1.456339716911316,
     "1": -1.5622000694274902,
     "2": -2.200125217437744,
     "3": 2.5337681770324707,
     "4": -1.0496065616607666,
     "5": 1.3973236083984375,
     "6": -0.7651236057281494,
     "7": 2.6277737617492676,
     "8": 2.2359540462493896,
     "9": -1.6982284784317017,
     "10": 0.08760315179824829,
     "11": 2.1333208084106445,
     "12": 1.1286662817001343,
     "13": -0.02694264054298401,
     "14": -0.67451411485672,
     "15": 0.18782973289489746,
     "16": 1.5179378986358643,
     "17": -0.6524038314819336,
     "18": -1.3439671993255615,
     "19": 0.05955037102103233,
     "20": -0.7471159100532532,
     "21": 0.1964951604604721,
     "22": -0.02967107854783535,
     "23": 1.5325219631195068
    }
   },
   "1": {
    "bias": -2.2277605533599854,
    "weights": {
     "0": 1.9597448110580444,
     "1": -1.444965124130249,
     "2": -2.6699347496032715,
     "3": 3.4208428859710693,
     "4": 0.6027066707611084,
     "5": 1.4350612163543701,
     "6": -1.0138046741485596,
     "7": 2.348895788192749,
     "8": 0.7544038891792297,
     "9": 3.7438600063323975,
     "10": 0.3427238166332245,
     "11": -1.0466914176940918,
     "12": -1.7341368198394775,
     "13": 0.14138731360435486,
     "14": -1.1289459466934204,
     "15": 0.05045071989297867,
     "16": -0.541558027267456,
     "17": 0.08850890398025513,
     "18": 3.079967737197876,
     "19": -0.10764921456575394,
     "20": -2.805422306060791,
     "21": -0.8535072803497314,
     "22": -0.019735343754291534,
     "23": 0.38466233015060425
    }
   },
   "2": {
    "bias": -1.666046142578125,
    "weights": {
     "0": 2.312586545944214,
     "1": 2.767829656600952,
     "2": -2.532797336578369,
     "3": 2.8383569717407227,
     "4": 1.4533874988555908,
     "5": 1.4424182176589966,
     "6": 0.04419422522187233,
     "7": 0.18327362835407257,
     "8": 2.1538500785827637,
     "9": -2.3412020206451416,
     "10": -0.8212376832962036,
     "11": 1.5517736673355103,
     "12": -0.2895638048648834,
     "13": -0.1892751157283783,
     "14": 2.7433159351348877,
     "15": 0.1683061420917511,
     "16": -1.3022452592849731,
     "17": -0.5431634187698364,
     "18": -1.4615998268127441,
     "19": 0.08350818604230881,
     "20": -1.6276975870132446,
     "21": 0.9140404462814331,
     "22": 0.3722561001777649,
     "23": 0.7451797127723694
    }
   }
  },
  {
   "0": {
    "bias": -10.682271957397461,
    "weights": {
     "0": 3.5708062648773193,
     "1": 6.095503807067871,
     "2": 4.396219730377197
    }
   },
   "1": {
    "bias": -3.147127151489258,
    "weights": {
     "0": -6.437841892242432,
     "1": -4.006298542022705,
     "2": 7.134601593017578
    }
   },
   "2": {
    "bias": -0.9233787655830383,
    "weights": {
     "0": 2.7826085090637207,
     "1": -2.567379951477051,
     "2": -5.076058864593506
    }
   },
   "3": {
    "bias": -4.45475435256958,
    "weights": {
     "0": 7.748583793640137,
     "1": -8.47812557220459,
     "2": -0.7598558664321899
    }
   },
   "4": {
    "bias": -4.639583110809326,
    "weights": {
     "0": 4.801180839538574,
     "1": 1.7700248956680298,
     "2": -5.659783840179443
    }
   },
   "5": {
    "bias": -3.9854393005371094,
    "weights": {
     "0": -5.6984100341796875,
     "1": 7.4834699630737305,
     "2": -4.948521137237549
    }
   },
   "6": {
    "bias": 3.39833927154541,
    "weights": {
     "0": -6.2521562576293945,
     "1": -7.580137729644775,
     "2": -7.504912853240967
    }
   }
  }
 ],
 "outputLookup": true,
 "inputLookup": true,
 "activation": "sigmoid",
 "trainOpts": {
  "iterations": 20000,
  "errorThresh": 0.005,
  "log": false,
  "logPeriod": 10,
  "learningRate": 0.3,
  "momentum": 0.1,
  "callbackPeriod": 10,
  "beta1": 0.9,
  "beta2": 0.999,
  "epsilon": 1e-8
 }
}